digraph Tree {
node [shape=box] ;
0 [label="X[11] <= 0.5\ngini = 0.196\nsamples = 480\nvalue = [427, 53]"] ;
1 [label="X[1] <= 1.5\ngini = 0.273\nsamples = 313\nvalue = [262, 51]"] ;
0 -> 1 [labeldistance=2.5, labelangle=45, headlabel="True"] ;
2 [label="X[9] <= 1.5\ngini = 0.201\nsamples = 230\nvalue = [204, 26]"] ;
1 -> 2 ;
3 [label="X[19] <= 2.5\ngini = 0.48\nsamples = 15\nvalue = [9, 6]"] ;
2 -> 3 ;
4 [label="X[19] <= 1.5\ngini = 0.298\nsamples = 11\nvalue = [9, 2]"] ;
3 -> 4 ;
5 [label="X[21] <= 1.5\ngini = 0.375\nsamples = 8\nvalue = [6, 2]"] ;
4 -> 5 ;
6 [label="X[23] <= 1.5\ngini = 0.48\nsamples = 5\nvalue = [3, 2]"] ;
5 -> 6 ;
7 [label="gini = 0.0\nsamples = 1\nvalue = [0, 1]"] ;
6 -> 7 ;
8 [label="X[3] <= 1.5\ngini = 0.375\nsamples = 4\nvalue = [3, 1]"] ;
6 -> 8 ;
9 [label="gini = 0.0\nsamples = 1\nvalue = [1, 0]"] ;
8 -> 9 ;
10 [label="X[20] <= 1.5\ngini = 0.444\nsamples = 3\nvalue = [2, 1]"] ;
8 -> 10 ;
11 [label="gini = 0.5\nsamples = 2\nvalue = [1, 1]"] ;
10 -> 11 ;
12 [label="gini = 0.0\nsamples = 1\nvalue = [1, 0]"] ;
10 -> 12 ;
13 [label="gini = 0.0\nsamples = 3\nvalue = [3, 0]"] ;
5 -> 13 ;
14 [label="gini = 0.0\nsamples = 3\nvalue = [3, 0]"] ;
4 -> 14 ;
15 [label="gini = 0.0\nsamples = 4\nvalue = [0, 4]"] ;
3 -> 15 ;
16 [label="X[19] <= 2.5\ngini = 0.169\nsamples = 215\nvalue = [195, 20]"] ;
2 -> 16 ;
17 [label="X[7] <= 1.5\ngini = 0.217\nsamples = 145\nvalue = [127, 18]"] ;
16 -> 17 ;
18 [label="X[9] <= 2.5\ngini = 0.089\nsamples = 43\nvalue = [41, 2]"] ;
17 -> 18 ;
19 [label="gini = 0.0\nsamples = 16\nvalue = [16, 0]"] ;
18 -> 19 ;
20 [label="X[10] <= 2.5\ngini = 0.137\nsamples = 27\nvalue = [25, 2]"] ;
18 -> 20 ;
21 [label="X[21] <= 1.5\ngini = 0.231\nsamples = 15\nvalue = [13, 2]"] ;
20 -> 21 ;
22 [label="X[23] <= 1.5\ngini = 0.142\nsamples = 13\nvalue = [12, 1]"] ;
21 -> 22 ;
23 [label="X[10] <= 1.5\ngini = 0.245\nsamples = 7\nvalue = [6, 1]"] ;
22 -> 23 ;
24 [label="gini = 0.0\nsamples = 3\nvalue = [3, 0]"] ;
23 -> 24 ;
25 [label="X[4] <= 1.5\ngini = 0.375\nsamples = 4\nvalue = [3, 1]"] ;
23 -> 25 ;
26 [label="gini = 0.0\nsamples = 1\nvalue = [1, 0]"] ;
25 -> 26 ;
27 [label="X[21] <= 0.5\ngini = 0.444\nsamples = 3\nvalue = [2, 1]"] ;
25 -> 27 ;
28 [label="gini = 0.0\nsamples = 1\nvalue = [1, 0]"] ;
27 -> 28 ;
29 [label="X[22] <= 3.5\ngini = 0.5\nsamples = 2\nvalue = [1, 1]"] ;
27 -> 29 ;
30 [label="gini = 0.0\nsamples = 1\nvalue = [0, 1]"] ;
29 -> 30 ;
31 [label="gini = 0.0\nsamples = 1\nvalue = [1, 0]"] ;
29 -> 31 ;
32 [label="gini = 0.0\nsamples = 6\nvalue = [6, 0]"] ;
22 -> 32 ;
33 [label="X[8] <= 3.5\ngini = 0.5\nsamples = 2\nvalue = [1, 1]"] ;
21 -> 33 ;
34 [label="gini = 0.0\nsamples = 1\nvalue = [0, 1]"] ;
33 -> 34 ;
35 [label="gini = 0.0\nsamples = 1\nvalue = [1, 0]"] ;
33 -> 35 ;
36 [label="gini = 0.0\nsamples = 12\nvalue = [12, 0]"] ;
20 -> 36 ;
37 [label="X[12] <= 1.5\ngini = 0.265\nsamples = 102\nvalue = [86, 16]"] ;
17 -> 37 ;
38 [label="X[8] <= 2.5\ngini = 0.231\nsamples = 90\nvalue = [78, 12]"] ;
37 -> 38 ;
39 [label="X[6] <= 1.5\ngini = 0.314\nsamples = 41\nvalue = [33, 8]"] ;
38 -> 39 ;
40 [label="gini = 0.0\nsamples = 1\nvalue = [0, 1]"] ;
39 -> 40 ;
41 [label="X[8] <= 1.5\ngini = 0.289\nsamples = 40\nvalue = [33, 7]"] ;
39 -> 41 ;
42 [label="gini = 0.0\nsamples = 11\nvalue = [11, 0]"] ;
41 -> 42 ;
43 [label="X[21] <= 1.5\ngini = 0.366\nsamples = 29\nvalue = [22, 7]"] ;
41 -> 43 ;
44 [label="X[2] <= 1.5\ngini = 0.403\nsamples = 25\nvalue = [18, 7]"] ;
43 -> 44 ;
45 [label="gini = 0.0\nsamples = 4\nvalue = [4, 0]"] ;
44 -> 45 ;
46 [label="X[15] <= 1.5\ngini = 0.444\nsamples = 21\nvalue = [14, 7]"] ;
44 -> 46 ;
47 [label="gini = 0.0\nsamples = 1\nvalue = [0, 1]"] ;
46 -> 47 ;
48 [label="X[21] <= 0.5\ngini = 0.42\nsamples = 20\nvalue = [14, 6]"] ;
46 -> 48 ;
49 [label="gini = 0.0\nsamples = 1\nvalue = [0, 1]"] ;
48 -> 49 ;
50 [label="X[10] <= 1.5\ngini = 0.388\nsamples = 19\nvalue = [14, 5]"] ;
48 -> 50 ;
51 [label="X[22] <= 1.5\ngini = 0.463\nsamples = 11\nvalue = [7, 4]"] ;
50 -> 51 ;
52 [label="X[19] <= 1.5\ngini = 0.42\nsamples = 10\nvalue = [7, 3]"] ;
51 -> 52 ;
53 [label="X[9] <= 3.5\ngini = 0.278\nsamples = 6\nvalue = [5, 1]"] ;
52 -> 53 ;
54 [label="gini = 0.0\nsamples = 4\nvalue = [4, 0]"] ;
53 -> 54 ;
55 [label="gini = 0.5\nsamples = 2\nvalue = [1, 1]"] ;
53 -> 55 ;
56 [label="X[5] <= 1.5\ngini = 0.5\nsamples = 4\nvalue = [2, 2]"] ;
52 -> 56 ;
57 [label="gini = 0.0\nsamples = 1\nvalue = [1, 0]"] ;
56 -> 57 ;
58 [label="X[9] <= 2.5\ngini = 0.444\nsamples = 3\nvalue = [1, 2]"] ;
56 -> 58 ;
59 [label="gini = 0.0\nsamples = 2\nvalue = [0, 2]"] ;
58 -> 59 ;
60 [label="gini = 0.0\nsamples = 1\nvalue = [1, 0]"] ;
58 -> 60 ;
61 [label="gini = 0.0\nsamples = 1\nvalue = [0, 1]"] ;
51 -> 61 ;
62 [label="X[19] <= 1.5\ngini = 0.219\nsamples = 8\nvalue = [7, 1]"] ;
50 -> 62 ;
63 [label="X[9] <= 3.0\ngini = 0.375\nsamples = 4\nvalue = [3, 1]"] ;
62 -> 63 ;
64 [label="X[3] <= 1.5\ngini = 0.444\nsamples = 3\nvalue = [2, 1]"] ;
63 -> 64 ;
65 [label="gini = 0.0\nsamples = 1\nvalue = [1, 0]"] ;
64 -> 65 ;
66 [label="X[23] <= 1.5\ngini = 0.5\nsamples = 2\nvalue = [1, 1]"] ;
64 -> 66 ;
67 [label="gini = 0.0\nsamples = 1\nvalue = [1, 0]"] ;
66 -> 67 ;
68 [label="gini = 0.0\nsamples = 1\nvalue = [0, 1]"] ;
66 -> 68 ;
69 [label="gini = 0.0\nsamples = 1\nvalue = [1, 0]"] ;
63 -> 69 ;
70 [label="gini = 0.0\nsamples = 4\nvalue = [4, 0]"] ;
62 -> 70 ;
71 [label="gini = 0.0\nsamples = 4\nvalue = [4, 0]"] ;
43 -> 71 ;
72 [label="X[20] <= 1.5\ngini = 0.15\nsamples = 49\nvalue = [45, 4]"] ;
38 -> 72 ;
73 [label="X[19] <= 1.5\ngini = 0.48\nsamples = 5\nvalue = [3, 2]"] ;
72 -> 73 ;
74 [label="X[9] <= 3.5\ngini = 0.375\nsamples = 4\nvalue = [3, 1]"] ;
73 -> 74 ;
75 [label="gini = 0.0\nsamples = 2\nvalue = [2, 0]"] ;
74 -> 75 ;
76 [label="X[15] <= 1.5\ngini = 0.5\nsamples = 2\nvalue = [1, 1]"] ;
74 -> 76 ;
77 [label="gini = 0.0\nsamples = 1\nvalue = [1, 0]"] ;
76 -> 77 ;
78 [label="gini = 0.0\nsamples = 1\nvalue = [0, 1]"] ;
76 -> 78 ;
79 [label="gini = 0.0\nsamples = 1\nvalue = [0, 1]"] ;
73 -> 79 ;
80 [label="X[22] <= 1.5\ngini = 0.087\nsamples = 44\nvalue = [42, 2]"] ;
72 -> 80 ;
81 [label="X[9] <= 3.5\ngini = 0.051\nsamples = 38\nvalue = [37, 1]"] ;
80 -> 81 ;
82 [label="gini = 0.0\nsamples = 21\nvalue = [21, 0]"] ;
81 -> 82 ;
83 [label="X[10] <= 1.5\ngini = 0.111\nsamples = 17\nvalue = [16, 1]"] ;
81 -> 83 ;
84 [label="X[19] <= 1.5\ngini = 0.198\nsamples = 9\nvalue = [8, 1]"] ;
83 -> 84 ;
85 [label="X[3] <= 1.5\ngini = 0.32\nsamples = 5\nvalue = [4, 1]"] ;
84 -> 85 ;
86 [label="gini = 0.0\nsamples = 1\nvalue = [1, 0]"] ;
85 -> 86 ;
87 [label="X[18] <= 2.0\ngini = 0.375\nsamples = 4\nvalue = [3, 1]"] ;
85 -> 87 ;
88 [label="gini = 0.0\nsamples = 1\nvalue = [1, 0]"] ;
87 -> 88 ;
89 [label="gini = 0.444\nsamples = 3\nvalue = [2, 1]"] ;
87 -> 89 ;
90 [label="gini = 0.0\nsamples = 4\nvalue = [4, 0]"] ;
84 -> 90 ;
91 [label="gini = 0.0\nsamples = 8\nvalue = [8, 0]"] ;
83 -> 91 ;
92 [label="X[22] <= 2.5\ngini = 0.278\nsamples = 6\nvalue = [5, 1]"] ;
80 -> 92 ;
93 [label="X[13] <= 1.5\ngini = 0.5\nsamples = 2\nvalue = [1, 1]"] ;
92 -> 93 ;
94 [label="gini = 0.0\nsamples = 1\nvalue = [1, 0]"] ;
93 -> 94 ;
95 [label="gini = 0.0\nsamples = 1\nvalue = [0, 1]"] ;
93 -> 95 ;
96 [label="gini = 0.0\nsamples = 4\nvalue = [4, 0]"] ;
92 -> 96 ;
97 [label="X[8] <= 1.5\ngini = 0.444\nsamples = 12\nvalue = [8, 4]"] ;
37 -> 97 ;
98 [label="gini = 0.0\nsamples = 2\nvalue = [2, 0]"] ;
97 -> 98 ;
99 [label="X[9] <= 3.5\ngini = 0.48\nsamples = 10\nvalue = [6, 4]"] ;
97 -> 99 ;
100 [label="X[8] <= 3.0\ngini = 0.444\nsamples = 9\nvalue = [6, 3]"] ;
99 -> 100 ;
101 [label="X[9] <= 2.5\ngini = 0.32\nsamples = 5\nvalue = [4, 1]"] ;
100 -> 101 ;
102 [label="gini = 0.0\nsamples = 4\nvalue = [4, 0]"] ;
101 -> 102 ;
103 [label="gini = 0.0\nsamples = 1\nvalue = [0, 1]"] ;
101 -> 103 ;
104 [label="X[9] <= 2.5\ngini = 0.5\nsamples = 4\nvalue = [2, 2]"] ;
100 -> 104 ;
105 [label="X[22] <= 3.5\ngini = 0.444\nsamples = 3\nvalue = [1, 2]"] ;
104 -> 105 ;
106 [label="gini = 0.0\nsamples = 2\nvalue = [0, 2]"] ;
105 -> 106 ;
107 [label="gini = 0.0\nsamples = 1\nvalue = [1, 0]"] ;
105 -> 107 ;
108 [label="gini = 0.0\nsamples = 1\nvalue = [1, 0]"] ;
104 -> 108 ;
109 [label="gini = 0.0\nsamples = 1\nvalue = [0, 1]"] ;
99 -> 109 ;
110 [label="X[10] <= 3.5\ngini = 0.056\nsamples = 70\nvalue = [68, 2]"] ;
16 -> 110 ;
111 [label="gini = 0.0\nsamples = 50\nvalue = [50, 0]"] ;
110 -> 111 ;
112 [label="X[23] <= 1.5\ngini = 0.18\nsamples = 20\nvalue = [18, 2]"] ;
110 -> 112 ;
113 [label="X[22] <= 1.0\ngini = 0.444\nsamples = 6\nvalue = [4, 2]"] ;
112 -> 113 ;
114 [label="X[3] <= 1.5\ngini = 0.32\nsamples = 5\nvalue = [4, 1]"] ;
113 -> 114 ;
115 [label="gini = 0.0\nsamples = 1\nvalue = [0, 1]"] ;
114 -> 115 ;
116 [label="gini = 0.0\nsamples = 4\nvalue = [4, 0]"] ;
114 -> 116 ;
117 [label="gini = 0.0\nsamples = 1\nvalue = [0, 1]"] ;
113 -> 117 ;
118 [label="gini = 0.0\nsamples = 14\nvalue = [14, 0]"] ;
112 -> 118 ;
119 [label="X[10] <= 3.5\ngini = 0.421\nsamples = 83\nvalue = [58, 25]"] ;
1 -> 119 ;
120 [label="X[22] <= 3.5\ngini = 0.462\nsamples = 58\nvalue = [37, 21]"] ;
119 -> 120 ;
121 [label="X[13] <= 1.5\ngini = 0.472\nsamples = 55\nvalue = [34, 21]"] ;
120 -> 121 ;
122 [label="gini = 0.0\nsamples = 1\nvalue = [0, 1]"] ;
121 -> 122 ;
123 [label="X[7] <= 1.5\ngini = 0.466\nsamples = 54\nvalue = [34, 20]"] ;
121 -> 123 ;
124 [label="X[20] <= 1.5\ngini = 0.298\nsamples = 11\nvalue = [9, 2]"] ;
123 -> 124 ;
125 [label="X[10] <= 1.5\ngini = 0.5\nsamples = 2\nvalue = [1, 1]"] ;
124 -> 125 ;
126 [label="gini = 0.0\nsamples = 1\nvalue = [0, 1]"] ;
125 -> 126 ;
127 [label="gini = 0.0\nsamples = 1\nvalue = [1, 0]"] ;
125 -> 127 ;
128 [label="X[19] <= 3.5\ngini = 0.198\nsamples = 9\nvalue = [8, 1]"] ;
124 -> 128 ;
129 [label="gini = 0.0\nsamples = 6\nvalue = [6, 0]"] ;
128 -> 129 ;
130 [label="X[21] <= 1.5\ngini = 0.444\nsamples = 3\nvalue = [2, 1]"] ;
128 -> 130 ;
131 [label="X[3] <= 1.5\ngini = 0.5\nsamples = 2\nvalue = [1, 1]"] ;
130 -> 131 ;
132 [label="gini = 0.0\nsamples = 1\nvalue = [1, 0]"] ;
131 -> 132 ;
133 [label="gini = 0.0\nsamples = 1\nvalue = [0, 1]"] ;
131 -> 133 ;
134 [label="gini = 0.0\nsamples = 1\nvalue = [1, 0]"] ;
130 -> 134 ;
135 [label="X[18] <= 2.0\ngini = 0.487\nsamples = 43\nvalue = [25, 18]"] ;
123 -> 135 ;
136 [label="gini = 0.0\nsamples = 2\nvalue = [2, 0]"] ;
135 -> 136 ;
137 [label="X[14] <= 1.5\ngini = 0.493\nsamples = 41\nvalue = [23, 18]"] ;
135 -> 137 ;
138 [label="gini = 0.0\nsamples = 2\nvalue = [2, 0]"] ;
137 -> 138 ;
139 [label="X[22] <= 2.5\ngini = 0.497\nsamples = 39\nvalue = [21, 18]"] ;
137 -> 139 ;
140 [label="X[12] <= 1.5\ngini = 0.49\nsamples = 35\nvalue = [20, 15]"] ;
139 -> 140 ;
141 [label="X[6] <= 1.5\ngini = 0.498\nsamples = 30\nvalue = [16, 14]"] ;
140 -> 141 ;
142 [label="gini = 0.0\nsamples = 1\nvalue = [1, 0]"] ;
141 -> 142 ;
143 [label="X[15] <= 1.5\ngini = 0.499\nsamples = 29\nvalue = [15, 14]"] ;
141 -> 143 ;
144 [label="gini = 0.0\nsamples = 1\nvalue = [1, 0]"] ;
143 -> 144 ;
145 [label="X[2] <= 1.5\ngini = 0.5\nsamples = 28\nvalue = [14, 14]"] ;
143 -> 145 ;
146 [label="gini = 0.0\nsamples = 1\nvalue = [1, 0]"] ;
145 -> 146 ;
147 [label="X[10] <= 1.5\ngini = 0.499\nsamples = 27\nvalue = [13, 14]"] ;
145 -> 147 ;
148 [label="X[22] <= 1.0\ngini = 0.492\nsamples = 16\nvalue = [9, 7]"] ;
147 -> 148 ;
149 [label="X[21] <= 1.5\ngini = 0.48\nsamples = 15\nvalue = [9, 6]"] ;
148 -> 149 ;
150 [label="X[20] <= 1.5\ngini = 0.49\nsamples = 14\nvalue = [8, 6]"] ;
149 -> 150 ;
151 [label="gini = 0.0\nsamples = 1\nvalue = [1, 0]"] ;
150 -> 151 ;
152 [label="X[23] <= 1.5\ngini = 0.497\nsamples = 13\nvalue = [7, 6]"] ;
150 -> 152 ;
153 [label="X[19] <= 2.5\ngini = 0.48\nsamples = 5\nvalue = [3, 2]"] ;
152 -> 153 ;
154 [label="gini = 0.444\nsamples = 3\nvalue = [2, 1]"] ;
153 -> 154 ;
155 [label="gini = 0.5\nsamples = 2\nvalue = [1, 1]"] ;
153 -> 155 ;
156 [label="X[19] <= 3.0\ngini = 0.5\nsamples = 8\nvalue = [4, 4]"] ;
152 -> 156 ;
157 [label="X[19] <= 1.5\ngini = 0.48\nsamples = 5\nvalue = [2, 3]"] ;
156 -> 157 ;
158 [label="X[4] <= 1.5\ngini = 0.5\nsamples = 4\nvalue = [2, 2]"] ;
157 -> 158 ;
159 [label="gini = 0.5\nsamples = 2\nvalue = [1, 1]"] ;
158 -> 159 ;
160 [label="gini = 0.5\nsamples = 2\nvalue = [1, 1]"] ;
158 -> 160 ;
161 [label="gini = 0.0\nsamples = 1\nvalue = [0, 1]"] ;
157 -> 161 ;
162 [label="gini = 0.444\nsamples = 3\nvalue = [2, 1]"] ;
156 -> 162 ;
163 [label="gini = 0.0\nsamples = 1\nvalue = [1, 0]"] ;
149 -> 163 ;
164 [label="gini = 0.0\nsamples = 1\nvalue = [0, 1]"] ;
148 -> 164 ;
165 [label="X[19] <= 2.5\ngini = 0.463\nsamples = 11\nvalue = [4, 7]"] ;
147 -> 165 ;
166 [label="X[22] <= 1.5\ngini = 0.278\nsamples = 6\nvalue = [1, 5]"] ;
165 -> 166 ;
167 [label="gini = 0.0\nsamples = 5\nvalue = [0, 5]"] ;
166 -> 167 ;
168 [label="gini = 0.0\nsamples = 1\nvalue = [1, 0]"] ;
166 -> 168 ;
169 [label="X[21] <= 1.5\ngini = 0.48\nsamples = 5\nvalue = [3, 2]"] ;
165 -> 169 ;
170 [label="gini = 0.0\nsamples = 3\nvalue = [3, 0]"] ;
169 -> 170 ;
171 [label="gini = 0.0\nsamples = 2\nvalue = [0, 2]"] ;
169 -> 171 ;
172 [label="X[20] <= 1.5\ngini = 0.32\nsamples = 5\nvalue = [4, 1]"] ;
140 -> 172 ;
173 [label="gini = 0.0\nsamples = 1\nvalue = [0, 1]"] ;
172 -> 173 ;
174 [label="gini = 0.0\nsamples = 4\nvalue = [4, 0]"] ;
172 -> 174 ;
175 [label="X[23] <= 1.5\ngini = 0.375\nsamples = 4\nvalue = [1, 3]"] ;
139 -> 175 ;
176 [label="X[19] <= 2.5\ngini = 0.5\nsamples = 2\nvalue = [1, 1]"] ;
175 -> 176 ;
177 [label="gini = 0.0\nsamples = 1\nvalue = [1, 0]"] ;
176 -> 177 ;
178 [label="gini = 0.0\nsamples = 1\nvalue = [0, 1]"] ;
176 -> 178 ;
179 [label="gini = 0.0\nsamples = 2\nvalue = [0, 2]"] ;
175 -> 179 ;
180 [label="gini = 0.0\nsamples = 3\nvalue = [3, 0]"] ;
120 -> 180 ;
181 [label="X[15] <= 1.5\ngini = 0.269\nsamples = 25\nvalue = [21, 4]"] ;
119 -> 181 ;
182 [label="X[23] <= 1.5\ngini = 0.5\nsamples = 4\nvalue = [2, 2]"] ;
181 -> 182 ;
183 [label="gini = 0.0\nsamples = 2\nvalue = [0, 2]"] ;
182 -> 183 ;
184 [label="gini = 0.0\nsamples = 2\nvalue = [2, 0]"] ;
182 -> 184 ;
185 [label="X[19] <= 3.5\ngini = 0.172\nsamples = 21\nvalue = [19, 2]"] ;
181 -> 185 ;
186 [label="gini = 0.0\nsamples = 9\nvalue = [9, 0]"] ;
185 -> 186 ;
187 [label="X[23] <= 1.5\ngini = 0.278\nsamples = 12\nvalue = [10, 2]"] ;
185 -> 187 ;
188 [label="X[7] <= 1.5\ngini = 0.375\nsamples = 4\nvalue = [3, 1]"] ;
187 -> 188 ;
189 [label="gini = 0.5\nsamples = 2\nvalue = [1, 1]"] ;
188 -> 189 ;
190 [label="gini = 0.0\nsamples = 2\nvalue = [2, 0]"] ;
188 -> 190 ;
191 [label="X[7] <= 1.5\ngini = 0.219\nsamples = 8\nvalue = [7, 1]"] ;
187 -> 191 ;
192 [label="gini = 0.0\nsamples = 3\nvalue = [3, 0]"] ;
191 -> 192 ;
193 [label="X[21] <= 1.5\ngini = 0.32\nsamples = 5\nvalue = [4, 1]"] ;
191 -> 193 ;
194 [label="gini = 0.375\nsamples = 4\nvalue = [3, 1]"] ;
193 -> 194 ;
195 [label="gini = 0.0\nsamples = 1\nvalue = [1, 0]"] ;
193 -> 195 ;
196 [label="X[0] <= 1.5\ngini = 0.024\nsamples = 167\nvalue = [165, 2]"] ;
0 -> 196 [labeldistance=2.5, labelangle=-45, headlabel="False"] ;
197 [label="X[16] <= 1.5\ngini = 0.32\nsamples = 5\nvalue = [4, 1]"] ;
196 -> 197 ;
198 [label="gini = 0.0\nsamples = 4\nvalue = [4, 0]"] ;
197 -> 198 ;
199 [label="gini = 0.0\nsamples = 1\nvalue = [0, 1]"] ;
197 -> 199 ;
200 [label="X[21] <= 1.5\ngini = 0.012\nsamples = 162\nvalue = [161, 1]"] ;
196 -> 200 ;
201 [label="gini = 0.0\nsamples = 141\nvalue = [141, 0]"] ;
200 -> 201 ;
202 [label="X[10] <= 1.5\ngini = 0.091\nsamples = 21\nvalue = [20, 1]"] ;
200 -> 202 ;
203 [label="X[22] <= 1.0\ngini = 0.444\nsamples = 3\nvalue = [2, 1]"] ;
202 -> 203 ;
204 [label="gini = 0.0\nsamples = 2\nvalue = [2, 0]"] ;
203 -> 204 ;
205 [label="gini = 0.0\nsamples = 1\nvalue = [0, 1]"] ;
203 -> 205 ;
206 [label="gini = 0.0\nsamples = 18\nvalue = [18, 0]"] ;
202 -> 206 ;
}
